svm_type c_svc
kernel_type rbf
gamma 0.1
nr_class 2
total_sv 330
rho 0.287945642261
label -1 1
nr_sv 300 30
SV
-0.0546697038724 1:14.0 2:3.0 3:7.0 
-0.0546697038724 1:1.0 2:1.0 
-0.0546697038724 1:2.0 
-0.0546697038724 1:1.0 3:1.0 
-0.0546697038724 1:12.0 
-0.0546697038724 1:7.0 
-0.0546697038724 1:2.0 2:1.0 
-0.0546697038724 1:1.0 3:1.0 
-0.0546697038724 1:3.0 2:16.0 
-0.0546697038724 1:1.0 3:1.0 
-0.0546697038724 1:1.0 2:2.0 
-0.0546697038724 1:1.0 3:1.0 
-0.0546697038724 1:2.0 
-0.0546697038724 1:3.0 2:1.0 
-0.0546697038724 1:5.0 
-0.0546697038724 1:16.0 2:2.0 3:2.0 
-0.0546697038724 1:1.0 2:1.0 
-0.0546697038724 1:11.0 
-0.0546697038724 1:4.0 3:3.0 
-0.0546697038724 1:28.0 
-0.0546697038724 1:2.0 
-0.0546697038724 1:1.0 3:1.0 
-0.0546697038724 1:1.0 3:1.0 
-0.0546697038724 1:22.0 2:1.0 3:12.0 
-0.0546697038724 1:14.0 3:5.0 
-0.0546697038724 1:1.0 3:1.0 
-0.0546697038724 1:48.0 2:1.0 
-0.0546697038724 1:25.0 3:16.0 
-0.0546697038724 1:1.0 2:1.0 
-0.0546697038724 1:1.0 3:1.0 
-0.0546697038724 1:6.0 
-0.0546697038724 1:7.0 
-0.0546697038724 1:1.0 2:1.0 
-0.0546697038724 1:1.0 3:1.0 
-0.0546697038724 1:3.0 3:2.0 
-0.0546697038724 1:7.0 2:1.0 3:1.0 
-0.0546697038724 1:2.0 
-0.0546697038724 1:7.0 
-0.0546697038724 1:5.0 2:2.0 3:3.0 
-0.0546697038724 1:2.0 
-0.0546697038724 1:1.0 2:1.0 
-0.0546697038724 1:4.0 
-0.0546697038724 1:1.0 2:1.0 
-0.0546697038724 1:1.0 3:1.0 
-0.0546697038724 1:9.0 3:4.0 
-0.0546697038724 1:1.0 2:1.0 
-0.0546697038724 1:1.0 3:1.0 
-0.0546697038724 1:47.0 2:21.0 3:33.0 
-0.0546697038724 1:11.0 2:2.0 3:5.0 
-0.0546697038724 1:11.0 2:3.0 3:1.0 
-0.0546697038724 1:1.0 3:1.0 
-0.0546697038724 1:2.0 2:1.0 
-0.0546697038724 1:43.0 3:2.0 
-0.0546697038724 1:13.0 3:7.0 
-0.0546697038724 1:1.0 3:1.0 
-0.0546697038724 1:4.0 
-0.0546697038724 1:13.0 3:4.0 
-0.0546697038724 1:42.0 2:4.0 3:32.0 
-0.0546697038724 1:10.0 2:5.0 3:1.0 
-0.0546697038724 1:7.0 3:4.0 
-0.0546697038724 1:2.0 
-0.0546697038724 1:1.0 3:1.0 
-0.0546697038724 1:1.0 3:1.0 
-0.0546697038724 1:6.0 
-0.0546697038724 1:1.0 2:1.0 
-0.0546697038724 1:6.0 
-0.0546697038724 1:16.0 2:4.0 
-0.0546697038724 1:10.0 2:1.0 3:2.0 
-0.0546697038724 1:18.0 2:3.0 3:6.0 
-0.0546697038724 1:1.0 3:1.0 
-0.0546697038724 1:1.0 2:1.0 
-0.0546697038724 1:2.0 
-0.0546697038724 1:3.0 2:1.0 3:1.0 
-0.0546697038724 1:1.0 2:1.0 
-0.0546697038724 1:3.0 
-0.0546697038724 1:3.0 
-0.0546697038724 1:4.0 
-0.0546697038724 1:2.0 
-0.0546697038724 1:2.0 3:2.0 
-0.0546697038724 1:2.0 
-0.0546697038724 1:1.0 3:1.0 
-0.0546697038724 1:21.0 
-0.0546697038724 1:2.0 
-0.0546697038724 1:2.0 2:2.0 
-0.0546697038724 1:14.0 
-0.0546697038724 1:2.0 2:1.0 
-0.0546697038724 1:2.0 3:2.0 
-0.0546697038724 1:4.0 3:3.0 
-0.0546697038724 1:2.0 3:1.0 
-0.0546697038724 1:3.0 
-0.0546697038724 1:2.0 
-0.0546697038724 1:1.0 2:1.0 
-0.0546697038724 1:4.0 
-0.0546697038724 1:39.0 3:4.0 
-0.0546697038724 1:1.0 
-0.0546697038724 1:2.0 2:1.0 3:1.0 
-0.0546697038724 1:4.0 
-0.0546697038724 1:2.0 2:1.0 
-0.0546697038724 1:4.0 
-0.0546697038724 1:1.0 2:1.0 
-0.0546697038724 1:1.0 2:2.0 
-0.0546697038724 1:1.0 
-0.0546697038724 1:2.0 2:1.0 
-0.0546697038724 1:1.0 
-0.0546697038724 1:1.0 
-0.0546697038724 1:1.0 
-0.0546697038724 1:1.0 
-0.0546697038724 1:3.0 
-0.0546697038724 1:1.0 2:1.0 
-0.0546697038724 1:1.0 
-0.0546697038724 1:1.0 
-0.0546697038724 1:1.0 
-0.0546697038724 1:1.0 
-0.0546697038724 1:1.0 
-0.0546697038724 1:1.0 3:1.0 
-0.0546697038724 1:1.0 
-0.0546697038724 1:1.0 
-0.0546697038724 1:1.0 
-0.0546697038724 1:1.0 
-0.0546697038724 1:1.0 
-0.0546697038724 1:1.0 
-0.0546697038724 1:1.0 
-0.0546697038724 1:1.0 
-0.0546697038724 1:1.0 
-0.0546697038724 1:1.0 
-0.0546697038724 1:16.0 2:1.0 3:1.0 
-0.0546697038724 1:1.0 
-0.0546697038724 1:1.0 
-0.0546697038724 1:1.0 2:1.0 
-0.0546697038724 1:1.0 
-0.0546697038724 1:1.0 
-0.0546697038724 1:3.0 2:1.0 
-0.0546697038724 1:1.0 3:1.0 
-0.0546697038724 1:1.0 
-0.0546697038724 1:1.0 
-0.0546697038724 1:1.0 
-0.0546697038724 1:1.0 
-0.0546697038724 1:2.0 
-0.0546697038724 1:1.0 
-0.0546697038724 1:20.0 3:3.0 
-0.0546697038724 1:1.0 
-0.0546697038724 1:2.0 
-0.0546697038724 1:1.0 
-0.0546697038724 1:1.0 
-0.0546697038724 1:1.0 
-0.0546697038724 1:1.0 
-0.0546697038724 1:1.0 
-0.0546697038724 1:1.0 3:1.0 
-0.0546697038724 1:1.0 
-0.0546697038724 1:1.0 3:1.0 
-0.0546697038724 1:1.0 
-0.0546697038724 1:8.0 
-0.0546697038724 1:7.0 2:1.0 3:2.0 
-0.0546697038724 1:8.0 2:2.0 
-0.0546697038724 1:1.0 2:1.0 
-0.0546697038724 1:1.0 
-0.0546697038724 1:1.0 
-0.0546697038724 1:1.0 2:1.0 
-0.0546697038724 1:1.0 
-0.0546697038724 1:1.0 
-0.0546697038724 1:1.0 
-0.0546697038724 1:1.0 
-0.0546697038724 1:1.0 
-0.0546697038724 1:2.0 
-0.0546697038724 1:1.0 
-0.0546697038724 1:12.0 3:7.0 
-0.0546697038724 1:1.0 
-0.0546697038724 1:9.0 
-0.0546697038724 1:7.0 
-0.0546697038724 1:1.0 
-0.0546697038724 1:1.0 2:1.0 
-0.0546697038724 1:1.0 3:1.0 
-0.0546697038724 1:1.0 
-0.0546697038724 1:8.0 2:2.0 
-0.0546697038724 1:17.0 
-0.0546697038724 1:2.0 2:1.0 
-0.0546697038724 1:1.0 
-0.0546697038724 1:1.0 
-0.0546697038724 1:1.0 
-0.0546697038724 1:1.0 
-0.0546697038724 1:4.0 
-0.0546697038724 1:1.0 
-0.0546697038724 1:1.0 
-0.0546697038724 1:13.0 2:4.0 3:2.0 
-0.0546697038724 1:1.0 3:1.0 
-0.0546697038724 1:2.0 3:2.0 
-0.0546697038724 1:1.0 
-0.0546697038724 1:16.0 
-0.0546697038724 1:3.0 
-0.0546697038724 1:1.0 
-0.0546697038724 1:1.0 
-0.0546697038724 1:1.0 
-0.0546697038724 1:1.0 
-0.0546697038724 1:2.0 
-0.0546697038724 1:1.0 
-0.0546697038724 1:2.0 
-0.0546697038724 1:2.0 
-0.0546697038724 1:1.0 
-0.0546697038724 1:1.0 
-0.0546697038724 1:1.0 
-0.0546697038724 1:1.0 
-0.0546697038724 1:2.0 
-0.0546697038724 1:3.0 3:3.0 
-0.0546697038724 1:1.0 
-0.0546697038724 1:2.0 
-0.0546697038724 1:11.0 3:11.0 
-0.0546697038724 1:1.0 
-0.0546697038724 1:1.0 
-0.0546697038724 1:1.0 
-0.0546697038724 1:2.0 
-0.0546697038724 1:1.0 
-0.0546697038724 1:1.0 
-0.0546697038724 1:1.0 
-0.0546697038724 1:1.0 
-0.0546697038724 1:2.0 
-0.0546697038724 1:1.0 
-0.0546697038724 1:1.0 
-0.0546697038724 1:1.0 
-0.0546697038724 1:1.0 
-0.0546697038724 1:15.0 
-0.0546697038724 1:1.0 
-0.0546697038724 1:1.0 
-0.0546697038724 1:20.0 2:12.0 3:3.0 
-0.0546697038724 1:1.0 
-0.0546697038724 1:1.0 
-0.0546697038724 1:1.0 
-0.0546697038724 1:1.0 
-0.0546697038724 1:7.0 3:1.0 
-0.0546697038724 1:1.0 
-0.0546697038724 1:1.0 3:1.0 
-0.0546697038724 1:1.0 
-0.0546697038724 1:1.0 
-0.0546697038724 1:1.0 3:1.0 
-0.0546697038724 1:1.0 
-0.0546697038724 1:3.0 3:2.0 
-0.0546697038724 1:1.0 
-0.0546697038724 1:1.0 
-0.0546697038724 1:9.0 2:3.0 
-0.0546697038724 1:1.0 3:1.0 
-0.0546697038724 1:6.0 
-0.0546697038724 1:4.0 
-0.0546697038724 1:1.0 
-0.0546697038724 1:7.0 2:2.0 
-0.0546697038724 1:1.0 
-0.0546697038724 1:1.0 3:1.0 
-0.0546697038724 1:2.0 
-0.0546697038724 1:2.0 
-0.0546697038724 1:9.0 
-0.0546697038724 1:2.0 
-0.0546697038724 1:1.0 
-0.0546697038724 1:1.0 
-0.0546697038724 1:1.0 
-0.0546697038724 1:1.0 
-0.0546697038724 1:1.0 
-0.0546697038724 1:14.0 
-0.0546697038724 1:12.0 3:6.0 
-0.0546697038724 1:3.0 
-0.0546697038724 1:4.0 2:1.0 3:1.0 
-0.0546697038724 1:1.0 
-0.0546697038724 1:1.0 
-0.0546697038724 1:1.0 
-0.0546697038724 1:1.0 
-0.0546697038724 1:9.0 
-0.0546697038724 1:9.0 2:1.0 3:4.0 
-0.0546697038724 1:1.0 
-0.0546697038724 1:1.0 
-0.0546697038724 1:9.0 2:1.0 
-0.0546697038724 1:3.0 2:3.0 
-0.0546697038724 1:2.0 2:2.0 
-0.0546697038724 1:1.0 2:1.0 3:1.0 
-0.0546697038724 1:8.0 2:1.0 3:3.0 
-0.0546697038724 1:1.0 
-0.0546697038724 1:2.0 2:1.0 
-0.0546697038724 1:9.0 2:1.0 
-0.0546697038724 1:1.0 
-0.0546697038724 1:1.0 
-0.0546697038724 1:2.0 
-0.0546697038724 1:1.0 
-0.0546697038724 1:36.0 
-0.0546697038724 1:1.0 
-0.0546697038724 1:1.0 
-0.0546697038724 1:2.0 
-0.0546697038724 1:1.0 
-0.0546697038724 1:1.0 
-0.0546697038724 1:2.0 
-0.0546697038724 1:1.0 
-0.0546697038724 1:1.0 
-0.0546697038724 1:6.0 
-0.0546697038724 1:1.0 3:1.0 
-0.0546697038724 1:1.0 
-0.0546697038724 1:1.0 
-0.0546697038724 1:1.0 
-0.0546697038724 1:1.0 
-0.0546697038724 1:2.0 
-0.0546697038724 1:1.0 
-0.0546697038724 1:2.0 
-0.0546697038724 1:4.0 3:2.0 
-0.0546697038724 1:13.0 3:4.0 
-0.0546697038724 1:1.0 
-0.0402075178942 1:1.0 
0.585365853659 1:1.0 
0.479276139001 1:6.0 2:3.0 
0.585365853659 1:2.0 
0.585365853659 1:1.0 
0.585365853659 1:3.0 3:3.0 
0.585365853659 1:42.0 2:2.0 3:28.0 
0.585365853659 1:2.0 
0.585365853659 1:12.0 
0.479283046578 1:7.0 
0.300397873476 1:3.0 3:1.0 
0.0543173306442 1:6.0 3:2.0 
0.563465126299 1:11.0 
0.585365853659 1:2.0 
0.585365853659 1:10.0 2:3.0 3:6.0 
0.585365853659 1:1.0 2:1.0 
0.585365853659 1:2.0 
0.585365853659 1:1.0 2:1.0 
0.585365853659 1:3.0 3:1.0 
0.585365853659 1:1.0 
0.585365853659 1:2.0 
0.585365853659 1:1.0 2:1.0 
0.584989719909 1:7.0 
0.585365853659 1:3.0 
0.585365853659 1:3.0 
0.525925136983 1:3.0 2:2.0 
0.585365853659 1:1.0 
0.585365853659 1:1.0 
0.585365853659 1:3.0 3:1.0 
0.585365853659 1:1.0 
0.520745822374 1:3.0 
svm_type c_svc
kernel_type rbf
gamma 0.1
nr_class 2
total_sv 330
rho 0.287945642261
label -1 1
nr_sv 300 30
SV
-0.0546697038724 1:14.0 2:3.0 3:7.0 
-0.0546697038724 1:1.0 2:1.0 
-0.0546697038724 1:2.0 
-0.0546697038724 1:1.0 3:1.0 
-0.0546697038724 1:12.0 
-0.0546697038724 1:7.0 
-0.0546697038724 1:2.0 2:1.0 
-0.0546697038724 1:1.0 3:1.0 
-0.0546697038724 1:3.0 2:16.0 
-0.0546697038724 1:1.0 3:1.0 
-0.0546697038724 1:1.0 2:2.0 
-0.0546697038724 1:1.0 3:1.0 
-0.0546697038724 1:2.0 
-0.0546697038724 1:3.0 2:1.0 
-0.0546697038724 1:5.0 
-0.0546697038724 1:16.0 2:2.0 3:2.0 
-0.0546697038724 1:1.0 2:1.0 
-0.0546697038724 1:11.0 
-0.0546697038724 1:4.0 3:3.0 
-0.0546697038724 1:28.0 
-0.0546697038724 1:2.0 
-0.0546697038724 1:1.0 3:1.0 
-0.0546697038724 1:1.0 3:1.0 
-0.0546697038724 1:22.0 2:1.0 3:12.0 
-0.0546697038724 1:14.0 3:5.0 
-0.0546697038724 1:1.0 3:1.0 
-0.0546697038724 1:48.0 2:1.0 
-0.0546697038724 1:25.0 3:16.0 
-0.0546697038724 1:1.0 2:1.0 
-0.0546697038724 1:1.0 3:1.0 
-0.0546697038724 1:6.0 
-0.0546697038724 1:7.0 
-0.0546697038724 1:1.0 2:1.0 
-0.0546697038724 1:1.0 3:1.0 
-0.0546697038724 1:3.0 3:2.0 
-0.0546697038724 1:7.0 2:1.0 3:1.0 
-0.0546697038724 1:2.0 
-0.0546697038724 1:7.0 
-0.0546697038724 1:5.0 2:2.0 3:3.0 
-0.0546697038724 1:2.0 
-0.0546697038724 1:1.0 2:1.0 
-0.0546697038724 1:4.0 
-0.0546697038724 1:1.0 2:1.0 
-0.0546697038724 1:1.0 3:1.0 
-0.0546697038724 1:9.0 3:4.0 
-0.0546697038724 1:1.0 2:1.0 
-0.0546697038724 1:1.0 3:1.0 
-0.0546697038724 1:47.0 2:21.0 3:33.0 
-0.0546697038724 1:11.0 2:2.0 3:5.0 
-0.0546697038724 1:11.0 2:3.0 3:1.0 
-0.0546697038724 1:1.0 3:1.0 
-0.0546697038724 1:2.0 2:1.0 
-0.0546697038724 1:43.0 3:2.0 
-0.0546697038724 1:13.0 3:7.0 
-0.0546697038724 1:1.0 3:1.0 
-0.0546697038724 1:4.0 
-0.0546697038724 1:13.0 3:4.0 
-0.0546697038724 1:42.0 2:4.0 3:32.0 
-0.0546697038724 1:10.0 2:5.0 3:1.0 
-0.0546697038724 1:7.0 3:4.0 
-0.0546697038724 1:2.0 
-0.0546697038724 1:1.0 3:1.0 
-0.0546697038724 1:1.0 3:1.0 
-0.0546697038724 1:6.0 
-0.0546697038724 1:1.0 2:1.0 
-0.0546697038724 1:6.0 
-0.0546697038724 1:16.0 2:4.0 
-0.0546697038724 1:10.0 2:1.0 3:2.0 
-0.0546697038724 1:18.0 2:3.0 3:6.0 
-0.0546697038724 1:1.0 3:1.0 
-0.0546697038724 1:1.0 2:1.0 
-0.0546697038724 1:2.0 
-0.0546697038724 1:3.0 2:1.0 3:1.0 
-0.0546697038724 1:1.0 2:1.0 
-0.0546697038724 1:3.0 
-0.0546697038724 1:3.0 
-0.0546697038724 1:4.0 
-0.0546697038724 1:2.0 
-0.0546697038724 1:2.0 3:2.0 
-0.0546697038724 1:2.0 
-0.0546697038724 1:1.0 3:1.0 
-0.0546697038724 1:21.0 
-0.0546697038724 1:2.0 
-0.0546697038724 1:2.0 2:2.0 
-0.0546697038724 1:14.0 
-0.0546697038724 1:2.0 2:1.0 
-0.0546697038724 1:2.0 3:2.0 
-0.0546697038724 1:4.0 3:3.0 
-0.0546697038724 1:2.0 3:1.0 
-0.0546697038724 1:3.0 
-0.0546697038724 1:2.0 
-0.0546697038724 1:1.0 2:1.0 
-0.0546697038724 1:4.0 
-0.0546697038724 1:39.0 3:4.0 
-0.0546697038724 1:1.0 
-0.0546697038724 1:2.0 2:1.0 3:1.0 
-0.0546697038724 1:4.0 
-0.0546697038724 1:2.0 2:1.0 
-0.0546697038724 1:4.0 
-0.0546697038724 1:1.0 2:1.0 
-0.0546697038724 1:1.0 2:2.0 
-0.0546697038724 1:1.0 
-0.0546697038724 1:2.0 2:1.0 
-0.0546697038724 1:1.0 
-0.0546697038724 1:1.0 
-0.0546697038724 1:1.0 
-0.0546697038724 1:1.0 
-0.0546697038724 1:3.0 
-0.0546697038724 1:1.0 2:1.0 
-0.0546697038724 1:1.0 
-0.0546697038724 1:1.0 
-0.0546697038724 1:1.0 
-0.0546697038724 1:1.0 
-0.0546697038724 1:1.0 
-0.0546697038724 1:1.0 3:1.0 
-0.0546697038724 1:1.0 
-0.0546697038724 1:1.0 
-0.0546697038724 1:1.0 
-0.0546697038724 1:1.0 
-0.0546697038724 1:1.0 
-0.0546697038724 1:1.0 
-0.0546697038724 1:1.0 
-0.0546697038724 1:1.0 
-0.0546697038724 1:1.0 
-0.0546697038724 1:1.0 
-0.0546697038724 1:16.0 2:1.0 3:1.0 
-0.0546697038724 1:1.0 
-0.0546697038724 1:1.0 
-0.0546697038724 1:1.0 2:1.0 
-0.0546697038724 1:1.0 
-0.0546697038724 1:1.0 
-0.0546697038724 1:3.0 2:1.0 
-0.0546697038724 1:1.0 3:1.0 
-0.0546697038724 1:1.0 
-0.0546697038724 1:1.0 
-0.0546697038724 1:1.0 
-0.0546697038724 1:1.0 
-0.0546697038724 1:2.0 
-0.0546697038724 1:1.0 
-0.0546697038724 1:20.0 3:3.0 
-0.0546697038724 1:1.0 
-0.0546697038724 1:2.0 
-0.0546697038724 1:1.0 
-0.0546697038724 1:1.0 
-0.0546697038724 1:1.0 
-0.0546697038724 1:1.0 
-0.0546697038724 1:1.0 
-0.0546697038724 1:1.0 3:1.0 
-0.0546697038724 1:1.0 
-0.0546697038724 1:1.0 3:1.0 
-0.0546697038724 1:1.0 
-0.0546697038724 1:8.0 
-0.0546697038724 1:7.0 2:1.0 3:2.0 
-0.0546697038724 1:8.0 2:2.0 
-0.0546697038724 1:1.0 2:1.0 
-0.0546697038724 1:1.0 
-0.0546697038724 1:1.0 
-0.0546697038724 1:1.0 2:1.0 
-0.0546697038724 1:1.0 
-0.0546697038724 1:1.0 
-0.0546697038724 1:1.0 
-0.0546697038724 1:1.0 
-0.0546697038724 1:1.0 
-0.0546697038724 1:2.0 
-0.0546697038724 1:1.0 
-0.0546697038724 1:12.0 3:7.0 
-0.0546697038724 1:1.0 
-0.0546697038724 1:9.0 
-0.0546697038724 1:7.0 
-0.0546697038724 1:1.0 
-0.0546697038724 1:1.0 2:1.0 
-0.0546697038724 1:1.0 3:1.0 
-0.0546697038724 1:1.0 
-0.0546697038724 1:8.0 2:2.0 
-0.0546697038724 1:17.0 
-0.0546697038724 1:2.0 2:1.0 
-0.0546697038724 1:1.0 
-0.0546697038724 1:1.0 
-0.0546697038724 1:1.0 
-0.0546697038724 1:1.0 
-0.0546697038724 1:4.0 
-0.0546697038724 1:1.0 
-0.0546697038724 1:1.0 
-0.0546697038724 1:13.0 2:4.0 3:2.0 
-0.0546697038724 1:1.0 3:1.0 
-0.0546697038724 1:2.0 3:2.0 
-0.0546697038724 1:1.0 
-0.0546697038724 1:16.0 
-0.0546697038724 1:3.0 
-0.0546697038724 1:1.0 
-0.0546697038724 1:1.0 
-0.0546697038724 1:1.0 
-0.0546697038724 1:1.0 
-0.0546697038724 1:2.0 
-0.0546697038724 1:1.0 
-0.0546697038724 1:2.0 
-0.0546697038724 1:2.0 
-0.0546697038724 1:1.0 
-0.0546697038724 1:1.0 
-0.0546697038724 1:1.0 
-0.0546697038724 1:1.0 
-0.0546697038724 1:2.0 
-0.0546697038724 1:3.0 3:3.0 
-0.0546697038724 1:1.0 
-0.0546697038724 1:2.0 
-0.0546697038724 1:11.0 3:11.0 
-0.0546697038724 1:1.0 
-0.0546697038724 1:1.0 
-0.0546697038724 1:1.0 
-0.0546697038724 1:2.0 
-0.0546697038724 1:1.0 
-0.0546697038724 1:1.0 
-0.0546697038724 1:1.0 
-0.0546697038724 1:1.0 
-0.0546697038724 1:2.0 
-0.0546697038724 1:1.0 
-0.0546697038724 1:1.0 
-0.0546697038724 1:1.0 
-0.0546697038724 1:1.0 
-0.0546697038724 1:15.0 
-0.0546697038724 1:1.0 
-0.0546697038724 1:1.0 
-0.0546697038724 1:20.0 2:12.0 3:3.0 
-0.0546697038724 1:1.0 
-0.0546697038724 1:1.0 
-0.0546697038724 1:1.0 
-0.0546697038724 1:1.0 
-0.0546697038724 1:7.0 3:1.0 
-0.0546697038724 1:1.0 
-0.0546697038724 1:1.0 3:1.0 
-0.0546697038724 1:1.0 
-0.0546697038724 1:1.0 
-0.0546697038724 1:1.0 3:1.0 
-0.0546697038724 1:1.0 
-0.0546697038724 1:3.0 3:2.0 
-0.0546697038724 1:1.0 
-0.0546697038724 1:1.0 
-0.0546697038724 1:9.0 2:3.0 
-0.0546697038724 1:1.0 3:1.0 
-0.0546697038724 1:6.0 
-0.0546697038724 1:4.0 
-0.0546697038724 1:1.0 
-0.0546697038724 1:7.0 2:2.0 
-0.0546697038724 1:1.0 
-0.0546697038724 1:1.0 3:1.0 
-0.0546697038724 1:2.0 
-0.0546697038724 1:2.0 
-0.0546697038724 1:9.0 
-0.0546697038724 1:2.0 
-0.0546697038724 1:1.0 
-0.0546697038724 1:1.0 
-0.0546697038724 1:1.0 
-0.0546697038724 1:1.0 
-0.0546697038724 1:1.0 
-0.0546697038724 1:14.0 
-0.0546697038724 1:12.0 3:6.0 
-0.0546697038724 1:3.0 
-0.0546697038724 1:4.0 2:1.0 3:1.0 
-0.0546697038724 1:1.0 
-0.0546697038724 1:1.0 
-0.0546697038724 1:1.0 
-0.0546697038724 1:1.0 
-0.0546697038724 1:9.0 
-0.0546697038724 1:9.0 2:1.0 3:4.0 
-0.0546697038724 1:1.0 
-0.0546697038724 1:1.0 
-0.0546697038724 1:9.0 2:1.0 
-0.0546697038724 1:3.0 2:3.0 
-0.0546697038724 1:2.0 2:2.0 
-0.0546697038724 1:1.0 2:1.0 3:1.0 
-0.0546697038724 1:8.0 2:1.0 3:3.0 
-0.0546697038724 1:1.0 
-0.0546697038724 1:2.0 2:1.0 
-0.0546697038724 1:9.0 2:1.0 
-0.0546697038724 1:1.0 
-0.0546697038724 1:1.0 
-0.0546697038724 1:2.0 
-0.0546697038724 1:1.0 
-0.0546697038724 1:36.0 
-0.0546697038724 1:1.0 
-0.0546697038724 1:1.0 
-0.0546697038724 1:2.0 
-0.0546697038724 1:1.0 
-0.0546697038724 1:1.0 
-0.0546697038724 1:2.0 
-0.0546697038724 1:1.0 
-0.0546697038724 1:1.0 
-0.0546697038724 1:6.0 
-0.0546697038724 1:1.0 3:1.0 
-0.0546697038724 1:1.0 
-0.0546697038724 1:1.0 
-0.0546697038724 1:1.0 
-0.0546697038724 1:1.0 
-0.0546697038724 1:2.0 
-0.0546697038724 1:1.0 
-0.0546697038724 1:2.0 
-0.0546697038724 1:4.0 3:2.0 
-0.0546697038724 1:13.0 3:4.0 
-0.0546697038724 1:1.0 
-0.0402075178942 1:1.0 
0.585365853659 1:1.0 
0.479276139001 1:6.0 2:3.0 
0.585365853659 1:2.0 
0.585365853659 1:1.0 
0.585365853659 1:3.0 3:3.0 
0.585365853659 1:42.0 2:2.0 3:28.0 
0.585365853659 1:2.0 
0.585365853659 1:12.0 
0.479283046578 1:7.0 
0.300397873476 1:3.0 3:1.0 
0.0543173306442 1:6.0 3:2.0 
0.563465126299 1:11.0 
0.585365853659 1:2.0 
0.585365853659 1:10.0 2:3.0 3:6.0 
0.585365853659 1:1.0 2:1.0 
0.585365853659 1:2.0 
0.585365853659 1:1.0 2:1.0 
0.585365853659 1:3.0 3:1.0 
0.585365853659 1:1.0 
0.585365853659 1:2.0 
0.585365853659 1:1.0 2:1.0 
0.584989719909 1:7.0 
0.585365853659 1:3.0 
0.585365853659 1:3.0 
0.525925136983 1:3.0 2:2.0 
0.585365853659 1:1.0 
0.585365853659 1:1.0 
0.585365853659 1:3.0 3:1.0 
0.585365853659 1:1.0 
0.520745822374 1:3.0 
